encog,BasicNetwork,java,3.4.0,1,1714506290388
[BASIC]
[BASIC:PARAMS]
[BASIC:NETWORK]
beginTraining=0
connectionLimit=0
contextTargetOffset=0,0,0
contextTargetSize=0,0,0
endTraining=2
hasContext=f
inputCount=5
layerCounts=13,33,6
layerFeedCounts=13,32,5
layerContextCount=0,0,0
layerIndex=0,13,46
output=0,0,0,0,0,0,0,0,0,0,0,0,0,0,0,0,0,0,0,0,0,0,0,0,0,0,0,0,0,0,0,0,0,0,0,0,0,0,0,0,0,0,0,0,0,1,0,0,0,0,0,1
outputCount=13
weightIndex=0,429,621
weights=0.528947362,0.5898630161,-0.2469476074,-0.1131741484,-0.0374570564,-0.5275578183,0.963301295,0.1620360767,-0.6076792913,0.0914406896,0.2784292983,0.0501361439,-0.5729451486,0.0000167388,0.3275103359,0.3804102725,0.8942650075,-0.3028056519,0.7099934192,0.9445902327,-0.7088474058,-0.4393956396,0.698906734,0.4050862396,-0.4055426793,0.308201012,-0.422877737,-0.899336941,0.596832552,0.2013581871,-0.6222910398,-0.0417538984,0.0553686912,-0.9455389477,-0.4497895114,0.7684356637,-0.365098562,-0.9969971242,0.8296418881,-0.5130005075,-0.9565654069,-0.2248629141,-0.3278323095,0.274141337,0.0165407692,0.2289573005,-0.1828763511,0.5807539668,-0.7658344252,0.3032303612,0.6153457402,-0.5849720778,0.435438621,-0.958383029,-0.5070251352,0.6488862782,0.7504052629,-0.6854584115,0.4297362867,-0.7484611287,-0.7747752589,0.5051064717,-0.6998059156,0.5426207807,-0.4837169591,-0.3824762152,-0.5897372158,0.4911275608,-0.443650355,0.3847918243,-0.2130863243,-0.3318501575,-0.4961301098,-0.7793549117,-0.080888011,0.7992049501,0.0182358439,0.6605425436,0.9487542575,-0.4278539493,-0.6120506718,-0.9826546215,-0.7385740158,0.5932319935,-0.8581882644,-0.2548434389,0.300205936,0.034863351,-0.8561160071,-0.0403201919,0.7519322873,0.4806811543,-0.8718142062,-0.3747796153,0.4585271914,-0.4739373644,-0.3570884199,-0.2144509566,-0.1195366147,0.1542722403,-0.1187970869,0.9057174682,0.5083921363,0.3797996091,-0.0451251434,-0.3825934544,-0.5593684288,0.1095838134,-0.7984667337,0.5886042689,-0.4381543283,-0.7174330629,-0.7660572266,-0.9856484039,-0.5718113895,0.673481267,-0.6031124919,0.4750620191,-0.870023312,-0.4937851594,0.6143265417,-0.0437333536,0.1427617132,-0.3792636489,-0.0088910197,-0.7593020614,-0.463558487,-0.2880396885,-0.4204663534,0.749112089,-0.0998210178,-0.0276167655,-0.7053340525,0.7703947261,-0.220617303,0.0912895836,0.8118509455,-0.8236179184,0.1643490964,-0.0406759238,0.8041286716,0.6464664824,-0.0188006274,0.9538465523,-0.548016487,-0.4368402227,0.2246265551,0.3644787846,0.5733905144,0.5860775133,-0.9562081661,-0.0115753328,-0.1769963804,-0.4706115133,-0.2672766941,0.0605284328,-0.1936264791,-0.0743710803,-0.5920296847,-0.2446174981,0.6022331895,0.6427740245,0.9922644801,-0.6801175128,-0.1914146865,-0.5345468785,0.5776846016,-0.3994593696,0.5856400716,0.5003754999,0.3515794784,0.4209749372,-0.3266309468,-0.7750368025,-0.1319251907,-0.1193434434,0.459232596,0.1743447595,-0.1455009241,0.5343568851,0.0204500619,0.8906445684,-0.3459438453,-0.2712397076,0.7172815121,0.0372952422,-0.3460885291,-0.9577076718,-0.8554568923,0.4402162499,0.2599055244,-0.428073304,-0.7725234289,-0.6863303466,0.6369352276,-0.7361317828,0.1645270912,-0.2895429874,0.8329046796,-0.1709374567,0.171049494,0.0962564614,-0.0298466101,-0.9286806035,0.5342598123,0.721968854,0.0207454147,-0.9518442241,0.4568870841,-0.0074310984,-0.8601720786,0.6300246075,0.1313594399,-0.0976165976,-0.3111247576,-0.2600870429,0.3316554878,-0.4263340625,0.0876064166,0.2039056087,0.3934511023,-0.1758118469,0.5924237311,0.3170374864,0.8812464069,0.3631671262,0.0795773015,0.5731490586,-0.3666025823,-0.9281002485,0.1492634069,-0.9118216124,0.9063135581,-0.1066989676,-0.5607079378,0.6301168005,-0.2839007953,0.7687882699,-0.9997482736,0.7723710788,-0.2886253934,-0.5294370691,0.0022805493,-0.983691506,-0.2320436651,0.138645322,-0.8835963414,-0.4089613818,0.6064206264,0.7811613614,-0.1364316294,0.2325202829,-0.8511110584,-0.4037152559,0.088851293,-0.1523071915,-0.1638570485,0.5148858727,0.0358414126,0.0976777412,-0.7328247799,0.3658289485,0.8637661479,-0.2041185819,0.0743435935,0.7690028904,-0.1061971239,0.1137525132,-0.884558905,-0.7888510243,-0.340067626,-0.286422029,0.6760301031,-0.004946569,-0.3206908697,0.4115424215,0.8063321588,-0.0689090777,-0.1959580076,-0.7055025878,-0.7659918472,-0.2171915734,0.6742168926,0.7821895679,0.1152647861,0.2836174154,-0.6182896539,-0.1531867884,0.8054685936,0.8196627673,-0.3325808976,-0.6837076117,-0.93713913,-0.129616672,-0.8379938986,-0.5920163631,0.7502414022,-0.410275777,0.7643596019,-0.8155871446,0.9211487493,0.174033683,-0.6409844137,-0.9014154422,-0.5941468105,0.1076561207,-0.8476585865,-0.0177964146,-0.5971329389,0.0176001826,-0.8707257545,-0.4158763338,-0.9109842428,-0.4597331422,0.183263472,0.7459782795,0.9702120209,-0.3700922945,0.5731086518,0.3074013157,-0.8536956847,0.9659735127,-0.3941625159,-0.2036836058,0.4157310833,-0.5743263292,0.6924758035,-0.9683940242,0.4095790484,0.3428127573,-0.5339420705,-0.0738388333,-0.0547599258,-0.9192082892,-0.9905412636,-0.6863431349,0.8435510585,0.6648988393,-0.9087993387,-0.0467720617,0.0925481177,-0.3828237162,-0.3142152647,0.4861248673,-0.6119643758,-0.2445872725,-0.0840138555,0.6352927879,0.6310825345,-0.3366936907,-0.3370544052,-0.914010932,-0.1678159192,0.1509321427,0.8355852212,-0.6323312571,-0.6595460909,-0.6002487164,-0.7850803827,-0.8913265753,0.1488402592,0.7659619515,-0.9063268768,0.0147376663,-0.0263389101,0.1740703424,0.7159113155,-0.6361588103,-0.8031180731,-0.6300778869,0.0980585133,0.6450170876,0.62916511,0.0122343122,-0.4053897893,-0.8336657005,0.2266107281,-0.358023546,0.7457623571,-0.5131221295,-0.9181524508,-0.0098282487,0.3601607046,-0.5927968134,-0.4432244253,0.6957903616,0.5318682142,0.4546009638,-0.3801010682,-0.0401541455,0.0068017444,-0.3441474705,0.0697508431,0.433537884,0.8876692213,-0.3540510841,-0.7718290678,-0.2173822073,0.2183980389,0.1373282493,0.746943917,-0.6784428255,0.5592154186,-0.1114299188,0.3667257191,-0.2521955023,-0.1644993598,0.9673874251,0.2703184786,-0.973376848,0.4016574588,-0.7421702289,-0.8159613361,0.2586800079,-0.6542355149,-0.3293536467,0.9179876966,-0.339368954,0.1328978462,0.455369197,0.4493383879,-0.5171836391,0.5765083945,0.1317858504,0.8864414909,0.825882548,0.1419981869,0.6982611331,0.1670339766,-0.5132621206,0.4922550106,-0.3440692826,0.1492553887,-0.7346577683,-0.9948464651,0.0678523938,-0.0915551397,0.0083495928,0.5872454331,0.3416747557,0.5415442574,-0.483804401,0.6847651383,0.1424604781,0.7040867389,0.3731677593,-0.9437192255,-0.2630943676,-0.9953942614,0.2449484696,0.6346025972,0.0321648031,-0.5477062537,0.4134579638,-0.8383927441,0.2643321735,-0.652378945,-0.1986849575,-0.2716589748,-0.0512952431,0.8018757454,0.3245492308,-0.7790518994,-0.6670172675,0.690291359,0.2743455453,-0.3324154242,-0.2024104416,-0.031854388,0.1221630956,-0.0503561082,0.9612341407,-0.7903929874,0.8041224899,-0.2259219793,-0.908629706,-0.4285522246,-0.5309095354,-0.1745249089,0.4866130928,-0.7915385752,-0.431617765,-0.8103390873,0.193767452,0.6313620434,0.4991181256,-0.853053564,-0.6797518097,-0.3233514216,-0.9722636483,-0.1143187902,-0.3326456567,-0.4643419828,-0.58245267,-0.8518664918,-0.6735591475,0.0686604895,0.7318774819,0.859483962,-0.1928271921,0.6956564019,-0.2629388318,0.3475668793,-0.0057641318,0.3980052834,0.3170313493,-0.5506049605,-0.3760779392,-0.9805827918,0.2741287891,-0.6134342135,0.8342024262,0.2246541261,0.3868702669,0.1858772334,0.2655673881,0.4848242993,-0.9420334228,0.7565928198,-0.1004758826,0.763080808,-0.0911244796,-0.2403183429,-0.7941893579,-0.7180955969,0.3681015118,-0.9826810444,0.0351295301,-0.9654544394,-0.1204124813,0.1086603065,0.5834115663,0.4172191913,-0.7204567341,0.7179983904,0.6550748471,-0.6485029381,-0.6504298443,0.569654052,0.1730320609,0.6812539975,0.8011692715,-0.3426287946,-0.0515021066,0.7621170022,-0.3054269272,0.8888464846,0.6842402805,0.7576624686,-0.7287385648,0.9593531554,0.6167174083,0.8850462258,0.2881037103,-0.0797758853,-0.1348721028,0.1493235451,0.1386954258,-0.0497947692,0.3355917737,0.9711052493,-0.207437607,0.7423711737,0.0565805906,0.9714067843,0.1616222081,0.5800359733,-0.3549652106,0.3015202678,0.7678604158,-0.8609532287,0.1849046843,-0.3202054171,-0.4823700414,0.1644596517,0.7455425962,0.9728864733,-0.9204258236,-0.2257759131,0.7386154046,0.4838935718,-0.3797448509,0.5316452202,0.4322999603,0.4656441991,0.0076134757,0.101244539,0.8532275824,-0.8083341829,0.7668509388,0.7223708658,-0.4098091204,0.1929520919,0.5007342241,-0.2913760823,-0.6076828556,0.271735368,0.2400497075,0.2876252263,-0.743387378,0.1159267028,0.4289165621,-0.414427042,-0.9944213324,-0.2003794903,-0.7966239065,-0.7361296914,0.3265108328,0.0511692061,0.080918801,-0.5187928427,0.3155975142,0.7641372682,0.6066830716,-0.3879794856,0.9687351216,0.8462265727,-0.4990711878,-0.530182637,0.3956853683,0.3099778635
biasActivation=0,1,1
[BASIC:ACTIVATION]
"org.encog.engine.network.activation.ActivationTANH"
"org.encog.engine.network.activation.ActivationTANH"
"org.encog.engine.network.activation.ActivationLinear"
