encog,BasicNetwork,java,3.4.0,1,1714506263393
[BASIC]
[BASIC:PARAMS]
[BASIC:NETWORK]
beginTraining=0
connectionLimit=0
contextTargetOffset=0,0,0
contextTargetSize=0,0,0
endTraining=2
hasContext=f
inputCount=5
layerCounts=13,33,6
layerFeedCounts=13,32,5
layerContextCount=0,0,0
layerIndex=0,13,46
output=0,0,0,0,0,0,0,0,0,0,0,0,0,0,0,0,0,0,0,0,0,0,0,0,0,0,0,0,0,0,0,0,0,0,0,0,0,0,0,0,0,0,0,0,0,1,0,0,0,0,0,1
outputCount=13
weightIndex=0,429,621
weights=0.3317235682,-0.2295568849,0.5004552653,-0.9153189682,-0.2067460147,-0.232675065,0.7092022713,-0.8696354723,0.552255786,0.9030438065,-0.7881693556,-0.6453790829,0.6444376861,0.1737646254,0.636461984,0.3740380239,-0.4212947933,-0.1143591721,0.5740462863,0.9057120713,0.9089338859,0.7026913862,-0.8157534489,-0.2667022971,-0.260534812,-0.5447305306,0.0177431949,-0.5350244099,0.3104553604,-0.4645676168,0.8252992181,-0.5566532915,0.1719027743,0.2723483336,-0.4706309234,-0.0024608369,0.6083116036,0.8490526789,0.3767633112,0.1547980098,-0.9492459051,-0.8003680077,0.5738422113,-0.4807449908,0.8965429598,-0.5648969959,0.0672898935,0.3587778602,0.5775589428,-0.694778869,-0.7568849501,0.4587088802,0.3338776464,0.1498704179,0.800184691,0.4750865066,0.9485450611,0.9157874888,0.0864164845,0.0307843618,0.4119142038,0.7049105107,0.9801376914,-0.3459069368,0.0107038081,-0.0709583774,0.6661490108,-0.5606628287,-0.8932574841,-0.5287628968,0.7002895431,-0.7850942522,-0.0385246649,0.8291002044,0.2188720396,0.9456752883,0.2773563416,0.5363691207,0.4500611892,-0.4616173063,0.4671689016,-0.8669427935,-0.7179550128,0.6061638409,-0.8906330773,0.2180416761,-0.3683435222,0.204782387,0.6894944995,-0.5835757767,0.270718567,0.1959007585,0.6551145281,0.4411070527,-0.6117320864,0.0166139531,0.0852544518,0.4369795526,-0.3068773193,0.3114275291,0.948783418,-0.1299951559,-0.8209499029,-0.5665516717,0.18044094,0.1470311359,0.5618909851,0.2905148154,-0.8629594097,-0.567892967,-0.7126242842,0.1167231943,-0.2622921893,0.6841127531,0.4088915389,-0.1002652531,0.8387522238,0.6806696469,0.5907628534,-0.5354606047,0.334653065,-0.5787526998,0.5812229316,0.7214181612,0.2700224531,0.4680307867,0.1075200259,0.6221076774,-0.8657795107,-0.423928937,0.4553422106,0.8698014657,-0.010333128,0.3805059039,-0.5495615823,0.1706306083,-0.1322521996,0.3222615355,0.7105487516,0.7264962839,-0.8869443817,0.6410741633,-0.9586804949,-0.3068824027,0.9173450294,-0.7255856089,0.1228112278,0.970417155,0.9967933808,0.2669247842,0.0131693449,-0.9096656715,-0.1041498959,-0.3283719871,0.6973734558,0.7208069531,0.4926895038,-0.5614465952,-0.0251686853,-0.5606327142,0.9877719505,0.1171941774,-0.5405241803,-0.0684972357,-0.98519663,-0.9713192268,-0.2681424243,0.2518157813,-0.36272137,0.1602142352,-0.6148690137,-0.2074233337,-0.9059158685,0.7699494106,0.9499527399,-0.9702192251,-0.9806756677,-0.8670267883,0.3512925917,0.0711006489,0.1638668405,0.9026845064,-0.4450866137,0.0616650783,0.1536640672,0.6389770507,0.7782896963,0.1780303634,0.0216326818,-0.3093732913,-0.8011159746,0.1837439245,-0.0163814538,0.6311386861,-0.2157199968,-0.5273510825,0.0432454129,0.070529771,0.7295480364,-0.204518894,0.7411057813,-0.1310197495,-0.5536207023,0.6482853318,0.338774384,-0.5432468249,0.823267524,0.0481922078,-0.5706836648,-0.472043488,-0.1101005275,0.1265476824,0.7544559779,0.0686961277,0.4306032784,-0.2166411409,0.6612762828,-0.0982217676,-0.0519347704,0.4377583844,-0.3890188369,0.0881845817,0.9296663572,-0.183166554,0.6425754925,-0.1736426742,-0.8354304751,-0.4049844591,-0.3277926329,-0.8733162984,0.2904412076,0.9903496002,-0.1025435533,-0.8042179827,-0.235474293,0.8812140785,0.7860031243,0.7891501918,0.363900918,-0.8962148267,0.408621487,0.6624751342,-0.3487060306,-0.3766315702,-0.0164872237,-0.5648654755,-0.7065126307,-0.2126559561,-0.6585556515,-0.4587972368,0.2997405562,-0.4213011522,-0.7015087351,0.8718332571,-0.6572320142,0.6273830343,-0.9198560142,0.6326629646,-0.698862514,0.6727493811,-0.7110424771,0.9564578487,-0.5483710749,-0.9893957293,0.8846131874,0.7567258366,-0.3650935954,-0.4612728779,-0.5947297094,0.6182587018,-0.0411067564,-0.284972252,-0.637776714,0.3164931337,0.7044005905,0.6979704882,0.8316384074,0.933344485,-0.805327159,0.4601139559,0.1275234022,-0.0750209133,-0.684149946,0.0666406962,-0.6204130076,0.9976102337,0.1227357748,-0.1241565283,0.1077331424,-0.7923505703,-0.7930756844,0.94933674,-0.7726758061,0.8975708475,0.5468013179,-0.8520991658,-0.5358420903,0.0778154015,0.3126222935,-0.7157859726,-0.5475687972,-0.1224044151,-0.5570352051,0.8170342318,0.1824169938,-0.712350457,-0.5674405374,-0.8276761726,0.5739895644,-0.4203543167,-0.068013443,-0.1042321948,0.1630725549,0.041721249,-0.5601676273,-0.5720062057,0.9091258499,-0.2231450599,0.4082941087,0.6829392929,-0.4623724533,0.7388632972,0.0098825702,0.5223036926,-0.5839994821,0.6975328316,0.1186491289,0.5999292287,0.3379096324,-0.0343763791,-0.3379236442,-0.741000139,-0.3607662914,-0.4255262613,-0.7524347183,0.0384772613,0.0598091536,0.2602637025,-0.9203616796,-0.2294201674,0.4275404893,0.4929469582,-0.1812876826,0.7520621762,-0.2135482894,-0.0073579183,-0.5892931008,-0.7972601949,-0.4125361252,-0.3052388176,-0.4077708996,-0.3277443005,-0.1922549967,0.4317387698,-0.7135115607,-0.3029368076,-0.9930529705,-0.7047641799,-0.7541694294,-0.8774769526,0.8053312975,-0.3052580496,-0.7089695168,-0.0754800602,0.9928663913,-0.7966345676,0.2716506275,0.5269753957,0.7001525924,0.9835324953,-0.9526316656,-0.8341325886,-0.0511689495,-0.9433377859,0.3275382966,-0.8239329292,-0.5742098136,-0.5620276865,-0.9310327316,0.3347632402,-0.5274789487,0.598062976,0.2610280263,-0.754734782,0.5470653089,-0.1770979482,0.9551225777,0.5999378834,-0.9169474686,-0.5051226176,0.9986153794,-0.6389847139,0.9724428351,0.7548579117,0.7069144352,-0.0386527629,-0.5160572739,0.8597293019,-0.5967402035,0.1676259937,0.4086152645,-0.1641372767,-0.2154739102,-0.7683076431,0.598697513,-0.3358664849,-0.5818960325,-0.0776287654,-0.2922468883,0.0311693765,0.7667435872,0.4449957271,-0.8782854908,-0.3997992311,0.5434678163,0.0883428612,0.1786473459,-0.2174118207,0.7075826546,0.4530097346,0.8933771065,-0.7905369029,0.6371758804,0.1351995671,-0.3249190772,0.8236156934,0.5630937204,0.9907510151,0.7488369003,-0.1500017763,0.3461168573,-0.1357539866,-0.380002863,0.2067847248,0.8272696758,-0.6312188784,0.1057941251,-0.4968763251,-0.0192316099,-0.8138405409,-0.5979936373,-0.7248597438,-0.8291892941,0.9559657093,0.2268711346,0.2666402388,-0.7338039266,0.7410261326,-0.0066156707,-0.4327353414,0.6908692822,-0.747450181,-0.3324426081,0.9994306866,-0.7571800191,-0.3006855915,-0.3192981371,-0.7015101353,0.2580796866,-0.1463351218,0.5951356653,-0.559109237,0.2427732207,-0.6488437672,-0.1798901565,0.5643768527,-0.0467356892,0.730906185,-0.14793036,0.0532410119,-0.0922796054,0.935212147,-0.7626661935,-0.2856263348,0.8033179594,-0.7128233384,-0.946301808,-0.3506730744,0.5996938407,-0.560321683,-0.1544518461,-0.0871362563,0.4076128462,-0.9082053184,-0.8606156575,-0.9549080079,0.039791823,-0.0653295699,0.1803243588,-0.3637343897,0.6240985011,0.3486683608,0.6427187479,0.055263996,0.659441029,0.7706716045,-0.3164849371,-0.1732359608,-0.8462791208,0.7524260299,-0.1899340224,0.6928881237,0.4000169494,0.1763803427,-0.5541435258,-0.2945004633,-0.0508300663,-0.2995596081,-0.0434195746,0.7993481326,-0.479919401,0.3146591217,0.6018727338,0.6742066016,0.0204531097,-0.4255100371,-0.1166555747,-0.466805889,-0.6573258434,-0.0359602887,-0.2293876089,-0.7141288684,0.3781413103,0.3170805466,-0.6243800947,0.7752735466,-0.9797900238,-0.1126212711,-0.1806707546,0.3294015175,-0.2664724574,0.8950902605,0.097209036,-0.8012065754,-0.6318913486,-0.2747378294,-0.9889342699,0.2881951376,-0.8776518381,-0.477368183,-0.6507401183,-0.0243090363,0.938989324,-0.8901798119,-0.3767235472,0.8261819311,0.3140385001,-0.0827640199,-0.6375885697,0.7189968934,-0.5181023006,0.2054652116,-0.4317409733,-0.0878953827,-0.7318889479,-0.5922256714,0.3145359644,-0.4096068434,-0.9128725533,0.9881782585,0.7672703217,-0.7529041837,0.2801909752,0.2767269732,0.2110392152,-0.8351961577,-0.2590360413,-0.8686326676,-0.9054856848,-0.3272288788,0.7964937286,-0.2649965294,-0.4279894748,-0.4773571816,-0.7105494141,-0.5469834683,-0.9560853824,-0.7746491417,-0.4140392052,-0.8285914792,0.7457840119,-0.5222069953,-0.9070764502,-0.0863099767,-0.7833954898,0.0766588322,-0.5882311493,0.739482306,-0.6103037949,-0.3225064454,-0.8353733306,0.1138688179,-0.8584042989,0.7756267633,0.5433327001,-0.462168246,-0.0847008137,-0.7206002921,0.3646775146,0.1978139547,-0.8614481054,0.7231212279,0.1275026961,0.8295340537,0.8139832186,0.61813614,-0.5171305561,0.0358020402,0.0452243733,-0.1681632497,-0.3266935975,0.8801431457,0.2681289151,-0.2176670027,-0.1639528945,0.0857525127,0.6126439453,-0.3977149114,0.5553471817,0.1633004742,-0.6525825699
biasActivation=0,1,1
[BASIC:ACTIVATION]
"org.encog.engine.network.activation.ActivationTANH"
"org.encog.engine.network.activation.ActivationTANH"
"org.encog.engine.network.activation.ActivationLinear"
