encog,BasicNetwork,java,3.4.0,1,1714687818156
[BASIC]
[BASIC:PARAMS]
[BASIC:NETWORK]
beginTraining=0
connectionLimit=0
contextTargetOffset=0,0,0
contextTargetSize=0,0,0
endTraining=2
hasContext=f
inputCount=9
layerCounts=13,33,10
layerFeedCounts=13,32,9
layerContextCount=0,0,0
layerIndex=0,13,46
output=-0.7559965251,-0.9478886863,-0.9791130542,-0.9985955303,-0.0557780712,-0.6542144064,0.2351635751,0.2850831242,0.8588431161,-0.2881859861,0.9998556424,0.9996615885,0.8754888741,0.7172986715,-0.7558504235,0.8226921331,0.9335352888,-0.9981497344,-0.9142245053,-0.3396523457,-0.2892822171,-0.9413802088,0.7098975556,-0.5518249669,0.9843841652,0.5050446922,0.7571763938,0.9749838891,0.9971870709,0.8986321137,-0.9508556497,-0.9597882643,-0.597363583,-0.2771390554,0.994315734,-0.9989888929,-0.7644370977,-0.1888244562,0.831062299,0.9337437458,0.7784266535,-0.8870483529,-0.4695434332,0.0591688645,-0.6994803419,1,1,1,1,1,1,1,1,1,1,1
outputCount=13
weightIndex=0,429,749
weights=0.8049942305,0.0182182039,-0.8785251709,0.5304827872,0.7651265771,0.7412266913,0.3531528328,0.2350164717,0.2522996603,0.4366173922,0.8741036954,-0.7846405847,0.366247759,0.8781182774,0.6491840946,-0.9434068961,-0.5325496897,-0.9934909544,-0.3671341205,-0.0771030916,-0.457868266,0.738227234,-0.9478107992,-0.1646127998,0.1515346179,-0.1571531105,-0.628594411,-0.620603146,0.4692629052,-0.1198488304,0.7041114142,-0.069674029,-0.3526844907,-0.0725918528,0.0950520667,-0.220866204,0.1895553711,0.6195054686,-0.8893518339,0.2766455263,0.1457574172,-0.3204993912,0.1353332899,0.997243577,-0.1598630901,-0.125361504,-0.5542914788,-0.5653199981,0.4350944159,0.6331730403,-0.0517746898,-0.4378949681,0.2214024612,0.5199367966,-0.7704454842,0.9858040011,-0.494114699,0.358853195,-0.8115571119,0.1887235505,-0.2945449388,0.1245499032,-0.6110800543,-0.1477717056,-0.0492552706,0.3738475737,-0.4632083688,0.4253769542,0.8644126384,-0.6064491315,0.6193210786,-0.1435991414,0.0320616586,0.474264208,-0.6848392564,-0.4475084498,-0.4641324355,-0.4537423405,-0.4375242821,0.1385401205,-0.7858885445,-0.645364814,0.6232718404,0.2127934212,0.8665911083,-0.3349045148,-0.0895762706,0.8084219507,-0.6127556221,-0.794380401,-0.3476151081,-0.7821249001,-0.4722001117,-0.9300760086,-0.56682858,-0.0342781384,0.0615894867,0.1756420106,-0.1670412121,-0.4432566434,0.6687527691,-0.3348021232,0.3025503197,0.7354925648,-0.9787778408,0.7489932056,-0.5965909033,0.5545626925,-0.687074131,0.4781513961,-0.6041648791,0.2195815874,0.5551109484,-0.7853508295,0.3073754619,0.4303538229,-0.9285666534,0.6815657074,0.4803353361,-0.9056855337,0.3564908687,0.8349902798,0.2385906786,0.7002751926,0.6066671746,0.1668528119,-0.8086744366,0.784288005,0.1037446172,0.3634720975,-0.0770640409,-0.2431047601,0.7420905354,0.4771730328,-0.4700011282,-0.5623520971,-0.8828928763,0.6942344324,0.0872028371,0.0103485165,-0.917940185,0.1474192498,0.5539226633,-0.9570406365,0.1436850754,-0.7621372273,-0.3971094901,0.9957854656,-0.6796044584,-0.1159069853,-0.4689666881,-0.8993967859,-0.3336596424,0.7772936881,-0.2783814161,0.8535822178,-0.3466754818,0.0933173063,-0.2221491787,0.5062097192,0.8092300185,-0.5495255339,-0.4263324684,-0.3108498092,-0.3919528734,0.3811680708,-0.9662015886,-0.9490891596,0.5616049995,0.1182268074,-0.5623041077,-0.3197948338,0.3444304085,0.6351644761,-0.7865149816,-0.2384030693,0.1384294344,0.1163249148,-0.3494047377,0.2195906522,0.1090005192,-0.3051389153,0.8066641283,-0.6791680536,-0.7862207716,0.7369224422,-0.7511545638,-0.0998728675,-0.9003115064,-0.4247707207,-0.7358947732,-0.6633865253,0.4006327837,-0.5834983723,0.6267001193,0.0014645691,-0.3311376725,-0.6966689636,0.8944227616,-0.2829641416,0.832904443,-0.4904515587,0.1237786132,0.5820967689,0.5531204023,0.1076543498,-0.0404879393,-0.2980627806,0.4634843906,0.3608469183,-0.2361572739,-0.9529949817,0.4932235358,-0.2405086683,-0.6884407964,0.011675599,-0.2212147312,-0.4518342431,0.6055976362,-0.0282119331,-0.8086028652,-0.8880139133,0.7040542544,0.3248807472,0.8458242809,0.3006920076,-0.1118746862,0.5446606513,-0.1659299137,0.7605202285,-0.9004229583,-0.2066978281,-0.7419798669,-0.9848808765,0.5816968514,0.0058925225,-0.8814476293,0.5137636015,0.301984508,0.9091179228,-0.9683294378,-0.5909914666,-0.1011574609,-0.957580691,0.8011732032,-0.4696790745,0.1737585847,0.0309141606,-0.8038203299,-0.9540037592,0.0483321972,-0.209978837,-0.497641531,-0.5200784134,0.6946204598,-0.5602280059,-0.3340439966,-0.2001101321,0.0634428321,0.1497123621,-0.0035592799,0.4518562221,-0.0874868261,0.2097952832,0.5236356513,-0.2106717803,-0.1765080432,-0.6227148682,-0.5194757557,0.1801145211,-0.2177548851,-0.4834090449,0.8130479969,-0.6625257514,0.4571539835,-0.9147658198,0.2889952103,0.956743652,-0.3816406892,-0.8304725476,-0.9341708473,-0.7606533573,-0.8351812281,0.8054081992,0.4921089598,0.8646754001,-0.3195652058,-0.4233651103,0.420585351,0.5910787255,0.8962342356,-0.3473049487,-0.8484175033,-0.8552864427,-0.385740384,0.8381727482,0.5373713181,0.055319678,-0.6821732446,0.6748547283,-0.6506016896,-0.3011672758,0.7817904626,-0.5614056705,-0.3736210555,0.2852231466,-0.4503329459,-0.7230214028,-0.711429004,0.3681239714,0.7188009201,-0.0186925855,0.8487270728,0.0395619282,0.956391301,-0.9299355569,0.5479963827,-0.0836828379,-0.6034115883,0.8996176398,0.2638896468,-0.412152199,-0.0206010555,0.3670707198,0.9401278578,-0.5644726122,0.0641225683,0.0026546609,0.2091644295,-0.8269860564,-0.39411195,-0.5170243916,-0.4885480486,0.1067994373,0.5564254043,-0.0137804246,0.0361639957,-0.3071806117,-0.4506105564,0.5355159555,-0.2482932155,0.6024901678,0.1657696162,0.0368937626,0.6734467101,0.9382361162,-0.4583343139,0.7772885201,-0.0734841577,-0.683658263,-0.1681443175,0.2603729188,0.0763140693,-0.4172582316,-0.7079393626,0.7412413261,0.4374597855,0.9073965806,-0.2225981156,0.1850522728,-0.7393882165,-0.3046756633,0.1695613431,0.7258545211,-0.2982654706,-0.1528443044,0.7253267039,-0.5799861547,-0.1793811604,-0.5902102856,0.1563916305,-0.9875422967,0.92428104,-0.9268737553,0.6171964082,0.336344922,0.4307156941,0.6760631686,0.1530792622,-0.7256235842,-0.3238370073,-0.0153921589,0.3230298277,0.9602443648,-0.9576723882,0.7535160297,0.3595208067,0.4531075331,0.7305258643,-0.439141401,-0.9759594624,-0.5348437105,-0.5891527217,0.109717869,-0.5467134105,0.4103890833,-0.914984518,-0.1947686349,-0.4972828558,-0.7900803214,0.512273756,-0.9080280939,0.9990031994,0.1213495808,-0.5864800302,0.6038742716,-0.982795494,0.8342068408,-0.7892627631,0.9190453095,0.3843847987,-0.8528833279,0.8768350583,-0.000589033,0.3623270591,0.4169742221,0.1794671434,0.8924054507,-0.9290646329,0.117784649,0.3512518166,-0.7545395045,0.4642050609,-0.3727522877,0.577401863,-0.3092744782,0.8912190046,0.4208749867,0.1930266066,0.1144837282,-0.4595784834,0.2527305809,0.904999343,-0.7177549785,0.7887926156,0.9453789008,-0.8227927976,0.1563147755,-0.2605152689,0.1523686993,0.4575836177,-0.6333882771,-0.083101672,0.325492422,-0.8123771515,-0.8911850408,0.7178661514,-0.6974726971,0.477750181,0.5950278417,0.8011148498,0.9291549003,-0.5747202149,0.6298973144,-0.7026182131,0.0732715381,-0.9118540413,-0.4506603894,0.7764775635,0.4117244501,-0.2979183354,0.1185274694,0.3021363149,0.5028978207,0.5547114649,0.9760437401,-0.8766798457,-0.9138918296,0.9076658574,-0.7764858132,0.3259489447,-0.6198266515,-0.5959678271,-0.1326671823,-0.9678587801,0.0516703464,0.2080834746,-0.8383106436,-0.1469097286,0.053458057,-0.297803409,0.1718203654,0.2499347527,0.2872765936,-0.2308220126,-0.9110554094,-0.7291520664,-0.4297092785,0.2833851545,-0.1599085455,0.6156555804,0.3552162658,-0.7520747427,0.8384159168,-0.5949920076,-0.8443254879,-0.5658481922,0.8701441734,-0.1159824458,-0.8284786948,0.1029019853,0.7782404487,-0.2276840775,-0.8530338584,0.1911289195,0.8092572223,-0.0211544624,-0.9837414057,0.7347811728,-0.3609450595,-0.3210409558,-0.9776602004,-0.4563768283,0.5425250881,0.4782460233,-0.8575848927,-0.1098417674,-0.0653899272,0.3780274835,-0.3225746493,0.2954903689,0.9364777659,-0.2290993348,-0.4314307319,0.6206743194,0.3316808551,0.0153510589,-0.8491029633,0.5195106219,0.3540672911,0.3706288362,0.1108756582,0.0230791872,0.9990331821,-0.6932204881,-0.9485898788,-0.7062714131,-0.4465107178,0.3159068128,0.934398383,0.5513537471,0.4334457278,-0.3171216366,-0.3422431332,0.3431494374,0.6578556945,-0.7298473696,0.3393091364,0.5520892379,-0.5500389987,-0.2078053151,0.6363390899,0.0912315035,0.4909342385,-0.9739721752,0.8021971575,0.2370885646,0.3806759526,-0.3505948169,-0.1364017292,-0.4843314014,0.7824980796,0.8864861179,-0.6684421,-0.1180090256,0.7332877122,-0.6496522821,0.7939120907,-0.1497833627,0.8296493155,-0.3332442275,0.7114311915,0.683711021,0.2858368977,0.0363119801,0.5109707697,0.9729295833,-0.9962276362,-0.5169711619,0.6355583,0.2848775872,-0.3329796913,0.4012927855,-0.0698931242,-0.4541961232,0.8612452195,0.9158791973,0.8310173472,0.2098328468,-0.5389481084,-0.54475804,0.6519820506,0.6895591096,0.929985858,-0.8029804456,0.5950978651,-0.540374032,0.2457705489,0.7797315079,-0.6523313695,0.4477914974,0.9626709658,-0.0908522696,-0.5989294596,-0.1601359473,-0.6845813341,-0.2656359971,-0.2501679463,-0.5484588692,-0.3997298352,0.9844856092,0.4291743661,-0.733585752,-0.8097592909,-0.1722510633,-0.1297028134,-0.440039338,-0.0524295672,-0.6193787312,0.4105978642,0.0808964512,-0.4845573555,0.7290971564,-0.8918288671,0.0603199199,-0.7044057749,0.6981849834,-0.9044811624,0.3171388723,0.0506285044,0.0209529441,0.1513104192,0.9223354936,0.0086026798,0.8232806156,-0.0919089932,-0.9117921538,-0.8557631629,-0.4022267817,-0.0439630057,-0.0425800588,0.6689305197,0.132321232,0.6552334475,0.6372094055,0.4121353953,0.5901846485,0.5189534508,-0.5982478959,-0.6919605156,-0.8601400563,-0.7116214563,-0.4211851987,-0.6024215399,0.9957927949,-0.3870343484,-0.6983439895,0.1648632876,-0.5826244164,-0.0299597781,-0.6949336711,-0.0880408265,-0.0547741482,-0.4302681196,0.9537960094,0.6146110679,-0.7783508953,0.3057648548,-0.8046490006,0.896904053,0.9693048293,-0.0582618068,-0.5830830269,-0.0459096706,0.5309656879,0.2936224748,-0.7438217459,-0.9453124984,-0.5055261773,-0.2977000017,-0.4189080025,-0.8242086998,-0.1144366108,0.9802033511,0.9796555678,0.7015476779,-0.3225984757,0.7450985815,-0.2370926103,0.6270991512,-0.7924639959,-0.7734780446,-0.0458206151,0.5283444347,0.4126896474,0.0844608448,0.8266023005,0.8356922044,-0.0162842752,-0.0017206074,0.2477871706,-0.4111818088,-0.009698504,0.9453864003,0.0381174373,-0.7561117377,-0.3994721262,0.5602859379,0.8279731779,-0.9894527494,-0.9883790935,-0.7739943874,0.2153656874,0.9980286962,0.745421309,-0.7731228067,-0.1204197502,0.3115788678,-0.0329304451,0.7126392247,-0.7283879478,0.9059798068,-0.7467664922,0.3671839449,0.7628013641,-0.0959115321,-0.9397039282,-0.8675137443,0.1201948244,-0.1034049936,0.310792899,-0.6755212538,0.0929099354,0.0194501645,0.8360352753,0.265339238,-0.180701909,0.4337552408,-0.9394165375,-0.5228115715,-0.8046069374,0.0519462364,-0.1848455525,0.0495677821,-0.1416664026,0.6793127539,0.3510348432,0.2840035478,-0.6282170155
biasActivation=0,1,1
[BASIC:ACTIVATION]
"org.encog.engine.network.activation.ActivationTANH"
"org.encog.engine.network.activation.ActivationTANH"
"org.encog.engine.network.activation.ActivationLinear"
